digraph Tree {
node [shape=box, style="filled", color="black", fontname="helvetica"] ;
edge [fontname="helvetica"] ;
0 [label="same_srv_rate <= 0.495\ngini = 0.5\nsamples = 162002\nvalue = [81001, 81001]", fillcolor="#ffffff"] ;
1 [label="diff_srv_rate <= 0.285\ngini = 0.125\nsamples = 77781\nvalue = [5224, 72557]", fillcolor="#47a4e7"] ;
0 -> 1 [labeldistance=2.5, labelangle=45, headlabel="True"] ;
2 [label="flag <= 0.7\ngini = 0.03\nsamples = 72915\nvalue = [1101, 71814]", fillcolor="#3c9fe5"] ;
1 -> 2 ;
3 [label="diff_srv_rate <= 0.02\ngini = 0.001\nsamples = 71681\nvalue = [20, 71661]", fillcolor="#399de5"] ;
2 -> 3 ;
4 [label="gini = 0.0\nsamples = 13\nvalue = [13, 0]", fillcolor="#e58139"] ;
3 -> 4 ;
5 [label="dst_bytes <= 0.0\ngini = 0.0\nsamples = 71668\nvalue = [7, 71661]", fillcolor="#399de5"] ;
3 -> 5 ;
6 [label="dst_host_diff_srv_rate <= 0.875\ngini = 0.0\nsamples = 71664\nvalue = [3, 71661]", fillcolor="#399de5"] ;
5 -> 6 ;
7 [label="dst_host_same_srv_rate <= 0.85\ngini = 0.0\nsamples = 71657\nvalue = [1, 71656]", fillcolor="#399de5"] ;
6 -> 7 ;
8 [label="gini = 0.0\nsamples = 71640\nvalue = [0, 71640]", fillcolor="#399de5"] ;
7 -> 8 ;
9 [label="count <= 0.081\ngini = 0.111\nsamples = 17\nvalue = [1, 16]", fillcolor="#45a3e7"] ;
7 -> 9 ;
10 [label="gini = 0.0\nsamples = 1\nvalue = [1, 0]", fillcolor="#e58139"] ;
9 -> 10 ;
11 [label="gini = 0.0\nsamples = 16\nvalue = [0, 16]", fillcolor="#399de5"] ;
9 -> 11 ;
12 [label="rerror_rate <= 0.01\ngini = 0.408\nsamples = 7\nvalue = [2, 5]", fillcolor="#88c4ef"] ;
6 -> 12 ;
13 [label="gini = 0.0\nsamples = 5\nvalue = [0, 5]", fillcolor="#399de5"] ;
12 -> 13 ;
14 [label="gini = 0.0\nsamples = 2\nvalue = [2, 0]", fillcolor="#e58139"] ;
12 -> 14 ;
15 [label="gini = 0.0\nsamples = 4\nvalue = [4, 0]", fillcolor="#e58139"] ;
5 -> 15 ;
16 [label="wrong_fragment <= 0.167\ngini = 0.217\nsamples = 1234\nvalue = [1081, 153]", fillcolor="#e99355"] ;
2 -> 16 ;
17 [label="gini = 0.0\nsamples = 1081\nvalue = [1081, 0]", fillcolor="#e58139"] ;
16 -> 17 ;
18 [label="gini = 0.0\nsamples = 153\nvalue = [0, 153]", fillcolor="#399de5"] ;
16 -> 18 ;
19 [label="dst_host_serror_rate <= 0.965\ngini = 0.259\nsamples = 4866\nvalue = [4123, 743]", fillcolor="#ea985d"] ;
1 -> 19 ;
20 [label="land <= 0.5\ngini = 0.001\nsamples = 4126\nvalue = [4123, 3]", fillcolor="#e58139"] ;
19 -> 20 ;
21 [label="gini = 0.0\nsamples = 4123\nvalue = [4123, 0]", fillcolor="#e58139"] ;
20 -> 21 ;
22 [label="gini = 0.0\nsamples = 3\nvalue = [0, 3]", fillcolor="#399de5"] ;
20 -> 22 ;
23 [label="gini = 0.0\nsamples = 740\nvalue = [0, 740]", fillcolor="#399de5"] ;
19 -> 23 ;
24 [label="service <= 0.341\ngini = 0.18\nsamples = 84221\nvalue = [75777, 8444]", fillcolor="#e88f4f"] ;
0 -> 24 [labeldistance=2.5, labelangle=-45, headlabel="False"] ;
25 [label="wrong_fragment <= 0.167\ngini = 0.076\nsamples = 77654\nvalue = [74566, 3088]", fillcolor="#e68641"] ;
24 -> 25 ;
26 [label="dst_host_serror_rate <= 0.965\ngini = 0.042\nsamples = 76204\nvalue = [74566, 1638]", fillcolor="#e6843d"] ;
25 -> 26 ;
27 [label="serror_rate <= 0.75\ngini = 0.004\nsamples = 74604\nvalue = [74437, 167]", fillcolor="#e58139"] ;
26 -> 27 ;
28 [label="dst_host_rerror_rate <= 0.995\ngini = 0.001\nsamples = 73944\nvalue = [73918, 26]", fillcolor="#e58139"] ;
27 -> 28 ;
29 [label="gini = 0.0\nsamples = 70807\nvalue = [70807, 0]", fillcolor="#e58139"] ;
28 -> 29 ;
30 [label="dst_host_same_src_port_rate <= 0.005\ngini = 0.016\nsamples = 3137\nvalue = [3111, 26]", fillcolor="#e5823b"] ;
28 -> 30 ;
31 [label="rerror_rate <= 0.5\ngini = 0.071\nsamples = 27\nvalue = [1, 26]", fillcolor="#41a1e6"] ;
30 -> 31 ;
32 [label="gini = 0.0\nsamples = 1\nvalue = [1, 0]", fillcolor="#e58139"] ;
31 -> 32 ;
33 [label="gini = 0.0\nsamples = 26\nvalue = [0, 26]", fillcolor="#399de5"] ;
31 -> 33 ;
34 [label="gini = 0.0\nsamples = 3110\nvalue = [3110, 0]", fillcolor="#e58139"] ;
30 -> 34 ;
35 [label="count <= 0.005\ngini = 0.336\nsamples = 660\nvalue = [519, 141]", fillcolor="#eca36f"] ;
27 -> 35 ;
36 [label="flag <= 0.55\ngini = 0.058\nsamples = 535\nvalue = [519, 16]", fillcolor="#e6853f"] ;
35 -> 36 ;
37 [label="dst_host_serror_rate <= 0.235\ngini = 0.467\nsamples = 43\nvalue = [27, 16]", fillcolor="#f4ccae"] ;
36 -> 37 ;
38 [label="land <= 0.5\ngini = 0.074\nsamples = 26\nvalue = [25, 1]", fillcolor="#e68641"] ;
37 -> 38 ;
39 [label="gini = 0.0\nsamples = 25\nvalue = [25, 0]", fillcolor="#e58139"] ;
38 -> 39 ;
40 [label="gini = 0.0\nsamples = 1\nvalue = [0, 1]", fillcolor="#399de5"] ;
38 -> 40 ;
41 [label="dst_host_count <= 0.01\ngini = 0.208\nsamples = 17\nvalue = [2, 15]", fillcolor="#53aae8"] ;
37 -> 41 ;
42 [label="gini = 0.0\nsamples = 2\nvalue = [2, 0]", fillcolor="#e58139"] ;
41 -> 42 ;
43 [label="gini = 0.0\nsamples = 15\nvalue = [0, 15]", fillcolor="#399de5"] ;
41 -> 43 ;
44 [label="gini = 0.0\nsamples = 492\nvalue = [492, 0]", fillcolor="#e58139"] ;
36 -> 44 ;
45 [label="gini = 0.0\nsamples = 125\nvalue = [0, 125]", fillcolor="#399de5"] ;
35 -> 45 ;
46 [label="flag <= 0.55\ngini = 0.148\nsamples = 1600\nvalue = [129, 1471]", fillcolor="#4aa6e7"] ;
26 -> 46 ;
47 [label="dst_host_srv_serror_rate <= 0.105\ngini = 0.043\nsamples = 1504\nvalue = [33, 1471]", fillcolor="#3d9fe6"] ;
46 -> 47 ;
48 [label="gini = 0.0\nsamples = 26\nvalue = [26, 0]", fillcolor="#e58139"] ;
47 -> 48 ;
49 [label="dst_host_count <= 0.006\ngini = 0.009\nsamples = 1478\nvalue = [7, 1471]", fillcolor="#3a9de5"] ;
47 -> 49 ;
50 [label="service <= 0.08\ngini = 0.366\nsamples = 29\nvalue = [7, 22]", fillcolor="#78bced"] ;
49 -> 50 ;
51 [label="gini = 0.0\nsamples = 1\nvalue = [1, 0]", fillcolor="#e58139"] ;
50 -> 51 ;
52 [label="dst_host_srv_serror_rate <= 0.915\ngini = 0.337\nsamples = 28\nvalue = [6, 22]", fillcolor="#6fb8ec"] ;
50 -> 52 ;
53 [label="srv_diff_host_rate <= 0.5\ngini = 0.124\nsamples = 15\nvalue = [1, 14]", fillcolor="#47a4e7"] ;
52 -> 53 ;
54 [label="dst_host_srv_diff_host_rate <= 0.44\ngini = 0.375\nsamples = 4\nvalue = [1, 3]", fillcolor="#7bbeee"] ;
53 -> 54 ;
55 [label="gini = 0.0\nsamples = 2\nvalue = [0, 2]", fillcolor="#399de5"] ;
54 -> 55 ;
56 [label="dst_host_srv_diff_host_rate <= 0.75\ngini = 0.5\nsamples = 2\nvalue = [1, 1]", fillcolor="#ffffff"] ;
54 -> 56 ;
57 [label="gini = 0.0\nsamples = 1\nvalue = [1, 0]", fillcolor="#e58139"] ;
56 -> 57 ;
58 [label="gini = 0.0\nsamples = 1\nvalue = [0, 1]", fillcolor="#399de5"] ;
56 -> 58 ;
59 [label="gini = 0.0\nsamples = 11\nvalue = [0, 11]", fillcolor="#399de5"] ;
53 -> 59 ;
60 [label="srv_count <= 0.003\ngini = 0.473\nsamples = 13\nvalue = [5, 8]", fillcolor="#b5daf5"] ;
52 -> 60 ;
61 [label="gini = 0.0\nsamples = 2\nvalue = [0, 2]", fillcolor="#399de5"] ;
60 -> 61 ;
62 [label="dst_host_srv_count <= 0.014\ngini = 0.496\nsamples = 11\nvalue = [5, 6]", fillcolor="#deeffb"] ;
60 -> 62 ;
63 [label="dst_host_srv_diff_host_rate <= 0.5\ngini = 0.469\nsamples = 8\nvalue = [3, 5]", fillcolor="#b0d8f5"] ;
62 -> 63 ;
64 [label="gini = 0.5\nsamples = 2\nvalue = [1, 1]", fillcolor="#ffffff"] ;
63 -> 64 ;
65 [label="dst_host_srv_count <= 0.01\ngini = 0.444\nsamples = 6\nvalue = [2, 4]", fillcolor="#9ccef2"] ;
63 -> 65 ;
66 [label="gini = 0.444\nsamples = 3\nvalue = [1, 2]", fillcolor="#9ccef2"] ;
65 -> 66 ;
67 [label="gini = 0.444\nsamples = 3\nvalue = [1, 2]", fillcolor="#9ccef2"] ;
65 -> 67 ;
68 [label="dst_host_srv_count <= 0.018\ngini = 0.444\nsamples = 3\nvalue = [2, 1]", fillcolor="#f2c09c"] ;
62 -> 68 ;
69 [label="gini = 0.0\nsamples = 1\nvalue = [1, 0]", fillcolor="#e58139"] ;
68 -> 69 ;
70 [label="gini = 0.5\nsamples = 2\nvalue = [1, 1]", fillcolor="#ffffff"] ;
68 -> 70 ;
71 [label="gini = 0.0\nsamples = 1449\nvalue = [0, 1449]", fillcolor="#399de5"] ;
49 -> 71 ;
72 [label="gini = 0.0\nsamples = 96\nvalue = [96, 0]", fillcolor="#e58139"] ;
46 -> 72 ;
73 [label="gini = 0.0\nsamples = 1450\nvalue = [0, 1450]", fillcolor="#399de5"] ;
25 -> 73 ;
74 [label="srv_count <= 0.005\ngini = 0.301\nsamples = 6567\nvalue = [1211, 5356]", fillcolor="#66b3eb"] ;
24 -> 74 ;
75 [label="wrong_fragment <= 0.167\ngini = 0.17\nsamples = 1287\nvalue = [1166, 121]", fillcolor="#e88e4e"] ;
74 -> 75 ;
76 [label="dst_host_serror_rate <= 0.98\ngini = 0.116\nsamples = 1243\nvalue = [1166, 77]", fillcolor="#e78946"] ;
75 -> 76 ;
77 [label="protocol_type <= 0.75\ngini = 0.047\nsamples = 1170\nvalue = [1142, 28]", fillcolor="#e6843e"] ;
76 -> 77 ;
78 [label="gini = 0.0\nsamples = 917\nvalue = [917, 0]", fillcolor="#e58139"] ;
77 -> 78 ;
79 [label="src_bytes <= 0.0\ngini = 0.197\nsamples = 253\nvalue = [225, 28]", fillcolor="#e89152"] ;
77 -> 79 ;
80 [label="gini = 0.0\nsamples = 221\nvalue = [221, 0]", fillcolor="#e58139"] ;
79 -> 80 ;
81 [label="service <= 0.601\ngini = 0.219\nsamples = 32\nvalue = [4, 28]", fillcolor="#55abe9"] ;
79 -> 81 ;
82 [label="gini = 0.0\nsamples = 24\nvalue = [0, 24]", fillcolor="#399de5"] ;
81 -> 82 ;
83 [label="dst_host_diff_srv_rate <= 0.045\ngini = 0.5\nsamples = 8\nvalue = [4, 4]", fillcolor="#ffffff"] ;
81 -> 83 ;
84 [label="dst_host_count <= 0.006\ngini = 0.32\nsamples = 5\nvalue = [1, 4]", fillcolor="#6ab6ec"] ;
83 -> 84 ;
85 [label="gini = 0.5\nsamples = 2\nvalue = [1, 1]", fillcolor="#ffffff"] ;
84 -> 85 ;
86 [label="gini = 0.0\nsamples = 3\nvalue = [0, 3]", fillcolor="#399de5"] ;
84 -> 86 ;
87 [label="gini = 0.0\nsamples = 3\nvalue = [3, 0]", fillcolor="#e58139"] ;
83 -> 87 ;
88 [label="dst_host_same_src_port_rate <= 0.5\ngini = 0.441\nsamples = 73\nvalue = [24, 49]", fillcolor="#9acdf2"] ;
76 -> 88 ;
89 [label="gini = 0.0\nsamples = 49\nvalue = [0, 49]", fillcolor="#399de5"] ;
88 -> 89 ;
90 [label="gini = 0.0\nsamples = 24\nvalue = [24, 0]", fillcolor="#e58139"] ;
88 -> 90 ;
91 [label="gini = 0.0\nsamples = 44\nvalue = [0, 44]", fillcolor="#399de5"] ;
75 -> 91 ;
92 [label="srv_rerror_rate <= 0.015\ngini = 0.017\nsamples = 5280\nvalue = [45, 5235]", fillcolor="#3b9ee5"] ;
74 -> 92 ;
93 [label="service <= 0.848\ngini = 0.011\nsamples = 5263\nvalue = [28, 5235]", fillcolor="#3a9ee5"] ;
92 -> 93 ;
94 [label="src_bytes <= 0.0\ngini = 0.008\nsamples = 5256\nvalue = [21, 5235]", fillcolor="#3a9de5"] ;
93 -> 94 ;
95 [label="srv_serror_rate <= 0.5\ngini = 0.188\nsamples = 200\nvalue = [21, 179]", fillcolor="#50a8e8"] ;
94 -> 95 ;
96 [label="gini = 0.0\nsamples = 21\nvalue = [21, 0]", fillcolor="#e58139"] ;
95 -> 96 ;
97 [label="gini = 0.0\nsamples = 179\nvalue = [0, 179]", fillcolor="#399de5"] ;
95 -> 97 ;
98 [label="gini = 0.0\nsamples = 5056\nvalue = [0, 5056]", fillcolor="#399de5"] ;
94 -> 98 ;
99 [label="gini = 0.0\nsamples = 7\nvalue = [7, 0]", fillcolor="#e58139"] ;
93 -> 99 ;
100 [label="gini = 0.0\nsamples = 17\nvalue = [17, 0]", fillcolor="#e58139"] ;
92 -> 100 ;
}